[0.46219617511496014, 0.44789949948261754, 0.43378095486425017, 0.4331924331176441, 0.49526088955563363, 0.4231878038159541, 0.43871648915888817, 0.551207233702361, 0.5386666324819827, 0.4662059138514766, 0.45921512364981976, 0.5150522886850766, 0.42112157976689657, 0.5084182418410268, 0.49311771069494303, 0.5177200520250707, 0.4134079491567313, 0.3853226185978699, 0.19242994100781388, -0.10752712634658629, -0.0953053431405534, 0.4375578746132338, -0.007770497235741956, -0.7755484578442596, -0.25776911116150175, 0.22062051576805183, 0.4039688226377138, 0.452098440619057, 0.42197894649291756, 0.44521259597026985, 0.3790069550109082, -0.09138160920596881, -1.4269566139386343, -0.48844067384084394, -0.01960988251215321, -0.136941630874192, -0.26019591606540693, 0.2904785285741521, 1.7298919726583692, 1.8931416658821194, 0.10979988792013337, 0.4472740330873009, 0.5169095289568484, 0.3859935811295668, 0.6831094016173537, 0.6984802817618586, -0.045808243634604395, 0.19879530574122126, 0.23232217608820527, -0.5369346963869023, -0.4132252632579088, -0.08978509242206287, -0.306399044555596, 0.09674832723091997, -1.14861151802798, 0.3645532901297808, 0.48178581862969216, 0.8449482166629716, 1.172672829437089, 1.338010658318116, 0.8768284252800175, 0.21020008323629705, 0.779448437364526, 1.2114044499709165, 1.1984764111347264, 1.0016298598044666, 0.31301191992948624, -0.6810846527029992, -1.5668908208049956, 0.13894895705350216, 0.5551101616950549, 1.1478911847811193, 1.217536943773853, -0.2852050002096104, -0.5254754348636481, -0.31998458820435843, 0.3421426219532415, 3.350384760692942, 0.9712557707971066, 0.46279588588799786, 0.3240842220052799, -0.38660405164630496, -0.7412770404677633, 0.3368150417075215, 0.5401630233038192, 1.0173685702444548, -0.07480914940891743, -0.17065195399581945, 0.1546389089935229, -2.264470916214489, -2.3529759609270315, -0.7342984771020049, -0.6687408179223023, -0.42053899371008924, -0.1820454631558328, -0.2614433496029934, 0.08658433015368523, 0.5237044714072682, 0.5311308471566083, 1.0989099240010747, -0.10858441835664229, -0.12297645604513668, -1.2824113139887967, -2.8408633185909125, -0.16399282933868753, -0.3424176220853347, -0.7760051752199599, 0.9855783483974189, 0.39341249368223086, 0.5944196014047254, 0.05636425520177278, 0.4636996034374925, 0.5242787817663763, 0.475258405569195, -0.45748653451087407, -0.62460323388706, -2.4536905388595276, -0.421448806561791, -0.01518304816909879, -0.16232327487051193, -0.2965310843967665, -0.08792161670138578, 0.7488700847048633, -0.3278750492368913, -0.6593774462057538, 0.4187071822314024, 0.4912963220575834, 0.2219192432749211, -2.0615680905434792, -3.2307229700199085, 0.22253926265419355, -0.7423868862867365, 1.3860324574582068, 0.5528651375252709, -1.2699566615351243, -1.7252597746264755, -2.252266373404252, -2.9569648651634988, -0.5740251976140333, 0.45404607177531253, 0.5208430194215068, -0.2160677225032152, -2.1489652564155755, -1.5588971306764108, -0.6867509780392973, -0.21055268650594094, 0.053271168514917915, 0.03851759167537581, -0.9899889689451343, -1.6490363035470985, -2.1847006562301976, -2.0357846081505073, -0.13647566624540847, 0.47210782378877625, 0.48101635609300564, -0.08464314950858412, 0.1578805762313115, 0.7040717476583859, -0.5920365378613212, -0.9605497377322314, -1.5735782702089731, -0.6282637494669102, 1.1269290223289021, -0.7706855125605854, -1.7798147456247642, -0.8440114020636277, 0.298064178820003, 0.46810870910875313, 0.4664856121297102, 0.38204656941907617, 0.6522735784721769, 0.42827023100663586, -0.03132490041867261, 0.15300188523648048, 0.3226679460087566, -0.35181091824871047, -1.2380445357282717, -0.6086498152401836, -0.3300545395537248, 0.06870204823165314, 0.39943936665507346, 0.4088457105595411, 0.48159900416616985, 0.44600132725247865, 0.3780387309915375, -0.018959821947931183, 0.4064100333155602, 0.10968026233025699, 0.16086011012799403, 0.47001063350519623, 0.4007802101708467, 0.44153950206739173, 0.35089812019876077, 0.5849597408011276, 0.46329097208338943, 0.45240652538140935, 0.4392541338487057, -0.4952285076097551, -0.4699463179524531, -0.45370298763625594, -0.2936278148731678, -0.21485488929748545, -0.10873917770848933, -0.07781059427508803, -0.3556419375397023, -0.34920054895295805, -0.30435453668107904, -0.34813909451529024, -0.3666317339138887, -0.41693588340843635, -0.46217448066013267, -0.476123638939959, -0.47238716660998936, -0.4501640196701828, -0.018144191665562692, 0.7474559046204844, 1.2469843479248768, 2.3025994161094094, 1.7099914133117813, 1.0649953791831095, 0.33183290272333504, -0.34512099390373735, -0.41932507565366695, -0.4021231317210944, -0.4104330069571799, -0.46728597869796507, -0.34755593638594307, -0.49890014324928283, -0.16925838217972008, 0.47412912534437024, 1.0301818851802993, 1.00730368265305, 1.1512332743039104, 1.3239685868860707, 0.7276963409808063, -0.10026284445815511, -0.9575598556210292, -0.6373317868927102, -0.46688650020242406, -0.48914958394081076, -0.534347659628975, -0.42989366317212474, -0.3552468940930301, -0.33365811449556054, -0.5226305212048444, -0.078423623996545, -0.15400790543388798, -0.36896050864809427, 0.20133211052921135, 0.2227692714868606, -0.017042176280864307, 0.2883592876143503, -0.4102094520163722, -0.3933647088484976, -0.591186413396813, -0.844994759626424, -0.2354303193133774, -0.4594258857059392, -0.5972082109370147, -0.5330804438505554, -0.31605474677475837, -0.25925450854402665, -0.24132201063791972, -0.10733465137426497, 0.1310072960080278, 1.278795054255287, -0.25347674215196386, -0.5092155001316502, -0.6367091366003138, -0.4216829515895094, -0.07342731381219661, -0.29584224937617054, -0.6628971800504211, -0.5890246575048679, 0.15198158675753137, -1.3636121302472257, -0.521545790625157, -0.200914850264176, 0.3634424561527072, 1.2451413010228967, -0.22612940697531306, -0.44054748282189093, -0.4148299796348716, -0.45174760018748694, -0.43909944344913626, -0.5718920058761517, -0.4178947525634195, 0.9405811837804975, 0.005947983610099838, -1.115176265270526, -0.4276202325153031, -0.43396654534697177, 0.6852824198053278, 0.9807974056557787, -0.30695036715833424, -0.4116136356727633, -0.6832220144796521, -0.8302808849353693, -0.9296719547484605, 0.158385018598737, 0.14332929994545274, 0.5458036432776694, 0.3473344285316723, -1.3361308244936416, -0.8491998057391957, -0.638327764765715, 0.37304266676801884, 1.463498986276565, -0.19771855422932483, -0.4814716562938647, -0.2462252326582152, 0.48881112966063534, -0.568904123437686, -0.5376441843989719, 0.002876463893733577, 0.29833871063812173, -0.6873544880502057, -1.1192874506705426, 0.019824616149780767, -0.13896622473067483, 1.1791400037468607, 1.6067895976051716, -0.24168050968990049, -0.45017017680307925, -0.2783269585071649, 1.5816308060317166, 0.9198643528530064, 0.8890352040116322, 0.9547026162062743, 0.40193639942868314, 0.03244423612247265, 0.8989216358735278, 0.7625997361481712, 0.9475734359812841, 3.191824108166079, 1.143349205529595, -0.39833225887627444, -0.48709037960652624, -0.12630068540752507, 1.081315221318279, 1.8207831941794326, 1.5204558899048164, 1.7005233786647687, 1.1930446169458633, 1.0566711508602376, 0.9039036003531569, 1.6415955411273018, 1.1810626305570724, 1.3224110788106807, -0.033395804974909446, -0.4361438135379395, -0.47393606753563844, 0.2934327478011381, 0.9469774697760689, 0.5043758713073981, 0.25594272974572857, 0.39890374580603005, 0.9687465250600635, 0.7701893700746669, 0.8781555206728004, 0.5310226792399778, 0.14488122638827575, 0.12984255097548497, -0.23017071840710662, -0.4560775611583334, -0.5032997569127083, -0.4531933837196922, -1.4736957523491254, -0.5287694233874487, 0.42059055022712033, 0.4611362428634247, 0.4569792458314143, 1.0062548279463202, 0.705202664328582, 0.41243495636613026, -1.160684120582808, -0.5191099385919451, -0.2968431741722106, -0.45655088595490956, -0.4299776888953727, -0.4721555456141012, -0.6033869192169253, -0.7328234092639045, -1.09074978256205, -1.2080230146714859, -1.0569792200642352, -1.3815806607472803, -0.6245014732049788, -0.6656674343996901, -0.7011364807543933, -0.49175262365342115, -0.4836078867555281, -0.4906085682884801, -0.4693538372065904, -0.18258834593081658, -0.21299999627528726, -0.254752152248459, -0.1233569192534295, -0.16195844436220258, -0.1467113767776682, -0.19094271539211283, -0.2208068709471317, -0.14548292027870086, -0.16094466809158262, -0.16050176949316056, -0.24437156443399205, -0.19663256164585924, -0.25576190022760587, -0.19391344106933395, -0.17619495365730004, -0.138848369924403, -0.12785820288532002, -0.1312712020865667, 0.26202987341988054, 0.6887507881079713, 1.4201972057821535, 2.2988733514398345, 1.9101629192941179, 0.39027760567767594, -0.1987030567183546, -0.22446756674224438, -0.12553975731240394, -0.12589356888615774, -0.18505634775328283, -0.029488172947684254, 0.3742050014931659, 1.1461342633023195, 0.54110076383829, -0.9119983930634044, -0.3907944799629448, -0.012165511406902262, -0.20287611590887705, -0.6374316924899734, -0.3119522509319203, -0.22149189736066005, -0.2614371969413735, -0.16383491776451814, -0.021855859640036463, 1.0464331357371623, 1.9874729412530259, 0.7557515912643893, -0.11866231141717881, -0.98631113167853, -1.7240805334201756, -1.317282242617512, -0.4436831329214497, -0.13190022741689142, 1.465857168337788, 0.25205269514025297, -0.14794272020557503, -0.11433200007092176, 0.13949487843579048, 0.5480413601930728, 0.2584212763688972, 0.05573352181684443, 0.27371821907137883, -0.6391073493786635, -1.6192802647507896, -0.48239733368539106, -0.1312003657803405, -0.3622222193743733, -0.8332504176950376, 0.7514103039469812, -0.11360119414385755, -0.14373925230371876, 0.09921502170586066, -1.2342911241197847, -2.462690392605746, -1.6703327774632257, -1.7776168283761657, -0.4076262927934326, -0.14316709576750464, 0.13740640409064175, -0.6177778415192123, -0.6810368779888376, -1.815733134735419, -0.22865099675861833, -0.22623781851886635, -0.23975967834901993, -0.09655770620326934, -1.0139081374671761, 0.1312341064089563, 0.016067001077484985, 1.182317094140543, 0.09880918784733275, -1.547341372134603, -0.48726286848114875, -1.1371966899048505, -0.9633574308869448, -0.36591607498424367, 0.02825748622839977, -0.19593003061842834, -0.24200994993062713, -0.08992008770392258, 0.360752408119929, 1.116521449438794, 1.3427988144002592, 1.4008582060226333, -1.1649380339818294, -0.4019371267016076, 0.13083789856282715, 0.8591967893488484, 1.2118501030880875, 1.5915470031202728, 0.5892998372287387, -0.08456427843923289, -0.24366492798236067, 0.0129495744463632, 0.5775734474428006, 0.6717662621086234, 0.4755208720459327, -0.624225400144962, -1.1111714715394916, 0.5068382168142205, 0.30042580396287666, 0.6121184138149852, 1.350416371664761, 1.9957424434364428, 1.3074996559869214, -0.11889792400064968, -0.23550709880194765, 0.40086857385760233, 2.002815274032698, 1.259940564231055, -0.9461510622503966, -0.8396531725678577, -0.002820168398691272, 0.8650191596693896, 0.9839267629843841, 0.8487690170738071, 0.931701835295924, 2.161578485575548, 1.4926632520652117, -0.14289359198440232, -0.17066689935971152, 0.5177986646388777, 2.07608693575881, 0.16747339560127006, 1.267989147521736, 1.1866458808669131, 0.9336490721478239, 1.4354295215998525, 2.055904402198051, 1.1166656061388738, 0.6509818326626415, 1.3104873749275174, 1.0357664912804139, -0.081817723087698, -0.18802069602051408, 0.21977306642699823, 1.3280269212110414, 1.1814729581383867, 0.8512308870218033, 0.4781792909894337, -0.4255863322152949, -0.4448253424965192, 0.0826908624469016, 1.033992692984092, 0.03416279005321767, -0.775383323120823, -0.01764986781488891, -0.16126807074378197, -0.1629725799841824, -0.18345619314744716, -0.2627392363982288, -0.5551472615296454, -0.15309330384662972, 0.1288528448134712, 0.16482344887940475, -0.4290623776707085, -1.6410817843518661, -2.474674936655644, -3.1391066394213625, -1.8525832242619709, -0.2937384896733904, -0.14752237486946312, -0.1934511617534323, -0.24542846011343877, -0.20040755964015586, -0.6807124735078401, -1.3384480943912938, -2.3487149923236164, -2.4962478439884728, -3.0063401960499667, -2.1088844533272595, -1.5076735646459711, -0.8428809763822613, -0.42009828982807274, -0.22008516525930832, -0.2241812641100378, -0.1843055297177093, -0.3921908602997467, 0.8751556669156723, 0.909048690409753, 2.7245930928059887, 3.523250229630612, 3.901473499883744, -0.5173078191650776, 5.565050549792972, -0.16539445886159074, 0.719763141591125, 0.7204227050972827, 2.490861081841512, -0.3173350724245386, 0.6587938775777525, 0.455514750169555, 2.267902572613337, -3.3027674913143956, -3.5994411129999735, 3.2604872781947902, 1.802562743859934, -0.40206497519606654, 0.5063610939348857, 0.36461809704712544, 2.243551834697804, -0.2964457966067756, 0.7678437977182414, 0.9072896530414433, 2.7040093004597217, 3.596917776631831, -3.6423714038406017, 0.22186052097109643, 1.887526089386291, -2.9974063833673403, 2.965866060782648, -2.9692074983307055, 1.9383292441843816, -3.166012354870154, -3.077471193119854, -3.0115052522376, -1.4499015838719793]
