[-0.2917359890074854, -0.27567814044365907, -0.2809935946351317, -0.30759287227541815, -0.2660399397232294, -0.279601638531153, -0.2804983456266615, -0.29746443771122394, -0.31903822470132753, -0.3188859976947725, -0.32209932659052126, -0.3127947609354335, -0.2804953487996867, -0.30366465736093246, -0.3195848150919079, -0.3339452691774814, -0.3330633628257584, -0.27081781531793264, -0.3182186432480842, -0.2983368243755357, -0.27925553299774747, -0.3117464336230716, -0.30054929545171966, -0.2900437849538893, -0.26709063916467707, -0.32521181719809117, -0.3249524170811677, -0.31877111940680375, -0.2651132584343397, -0.3113614171229256, -0.3116911955553155, -0.2751646382886744, -0.312890238899394, -0.2788996232125947, -0.33264152754409076, -0.3294898521030039, -0.299606000129003, -0.2859974268679408, -0.2928476563912169, -0.28047048688647025, -0.2865953487833795, -0.3113811882730126, -0.25931715488959534, -0.18241126169966568, 0.18702060658640704, -0.17279961548068437, -0.3460697142029982, -0.34322235036363097, -0.2952319631985973, -0.29710930310140354, -0.2909186294461152, -0.2758148802188833, -0.2868457174085978, -0.28108421281682955, -0.27140838499069003, -0.2782967694659076, -0.3008627575639434, -0.30169801026693827, -0.3139893250614015, -0.3151778480011245, -0.3031148952350503, -0.27690863202141996, -0.3235076627963785, -0.24420401819256604, -0.2985303566543995, -0.2312110738858595, -0.2923078650115312, 0.07109893188914423, 0.07530995297054516, -0.2286795441573027, 0.23473734591345255, 0.42078162874676955, 0.29563279269372056, -0.023586216445799585, -0.7646591705960184, -0.9582617568486012, -0.5020112992821494, -0.44045094550046404, -0.529556559148221, -0.41928505917411973, -0.2473193677485044, -0.23335555293177315, -0.2910420507373302, -0.27834478814141356, -0.26802145444023967, -0.29329951756271494, -0.30883811927617993, -0.2921491710310348, -0.27698753409854965, -0.29710778594877124, -0.22168913588854386, -0.07740667255139476, -0.03998812830883252, 0.08038648322456128, 0.379598981633957, 0.39202499268662194, 0.6975184840708121, 0.6544068594353086, 0.3387865386342508, -0.0894948843225015, -0.47000705050108743, -0.671904849581756, -1.2670797576098185, -0.825045272366992, -1.2057151273482325, -1.3415837712411223, -1.2381990827485905, -0.8100683521617463, -0.6088328649392281, -0.2562281368594554, -0.3090019156347938, -0.26483690829248635, -0.32624316680680293, -0.30723566405492614, -0.24553696302479153, -0.27348703996005425, -0.2661700356209218, -0.25739412894304914, 0.01218679185468356, 0.1311173023881928, 0.2346189353996873, 0.5183212501034872, 0.8235503647251305, 1.0495304687919498, 0.9851563824412574, 1.0459424810390012, 0.620216205392264, 0.9318409183977681, 0.5893054622092674, -0.02084646919438055, 0.14959968898732368, -0.7561177224188776, -0.6230409955689783, -0.4809215884087574, -0.8631671264850962, -0.7725709680110516, -0.392245589975935, -0.22002513440782961, -0.2081886859616601, -0.30737899142218034, -0.31311496498382924, -0.2775136495908061, -0.3306844656470392, -0.26083780555141406, -0.018940359973448943, 0.059218186331680966, 0.25383526666250433, 0.1009398820356021, 0.07878761299726726, 0.4469745299401762, 0.49721178290891643, 0.8603373559087868, 0.3405153637815297, 0.9536626868917444, 0.20874457291375068, 0.23369082073001088, -0.11091708669104744, -0.030224070440086428, 0.3067578811021785, 0.0826262551531058, -0.3952057797294201, 0.11792637847462015, 0.19301621602329846, -0.003554970038889512, 0.1952877707997106, 0.1131093668723719, -0.1657230890103135, -0.31794114598600365, -0.2751935428216788, -0.3035368162564211, -0.27922322568242386, -0.09480755698343306, 0.018501570926867588, 0.02990831451273207, 0.09916865807467275, -0.14056123524556127, 0.29605899053706974, 0.35539726424012613, 0.39910319786904475, 0.6715826530055287, 0.28443494371875855, 1.2587531661244862, 1.2999288294265325, 0.8333373283557999, 1.4066141740521887, 0.5958630035111666, 0.58683749065201, -0.1729057117950724, 0.40107781433534645, 0.33697028270199825, -0.19135742669831637, -0.07863757286374465, 0.15565302056403588, 0.12744648214016388, -0.27647199840783326, -0.2819407341908518, -0.3238986172704446, -0.285571800226117, -0.2513686090989214, -0.10106666359184212, -0.12354775977921184, -0.28680201768789915, -0.10142519834692018, -0.14622963678025458, 0.509301210962277, 0.11419539800058641, -0.11310092952665264, 0.546593956813623, 1.2208830463613125, 0.697942593455719, 1.0859477271777813, 0.7696909147892316, 0.749786313899675, 0.45285634962782306, 0.7846258547428295, 0.6823357742344949, 0.8503513333532856, 0.3014281829040358, -0.1563735593731659, -0.10724395287956139, 0.39960688865328947, 0.3081839890739467, -0.08897106684442428, -0.2894826984896875, -0.32981948953091006, -0.3102731268832963, -0.32011430501118954, 0.08327765887831404, 0.009466004550578135, -0.1085236171448841, 0.23238509818147177, -0.3193921579885028, 0.5506244954716298, 0.055188399421603695, 0.6803571372193812, 0.1406240840599945, 0.849712152181313, 0.7602812830679347, 1.2280586132691496, 0.963180243810246, 0.8488391066462274, 0.9711922335757459, 1.131987681357975, 0.7342114854596851, 0.5050823109974056, 0.5415783276613916, 0.3762036786037513, 0.07594776392032349, 0.6966564223147564, 0.5953262902666594, 0.18145617674743697, -0.2817564868065658, -0.2843214593545717, -0.203229118119666, -0.18629871631994985, 0.43000623025506973, 0.4537341110922735, 0.33421107984085247, 0.6649475645668079, -0.3098124927532437, 0.30909963465583196, 0.2622678748278779, 0.5090755690663026, 0.13672323772758382, 0.3602302609472823, 1.147079788541597, 1.7243262128976462, 0.8304591557907224, 0.9208977668535937, 0.69749068916144, 0.33546007144095435, 0.654356252268813, 0.848036949284228, 0.5203944337466592, 0.9304423711003197, 1.0053030124950122, 1.23397667076348, 0.8733996657400251, 0.20876554119073445, -0.24402554614773553, -0.2691531182003432, -0.24226511223994304, -0.15884572043372963, 0.29638108006575653, 0.3068148375837218, 0.47904376820072614, 0.6294629454666847, 0.39112574525140437, -0.18741630023374342, 0.16834061896429006, 0.4344142056455859, 0.3195166915186378, 0.03999920012890718, 0.6065935111896256, 1.2418568898146545, 0.4914530726345626, 0.7147068171814227, 0.27783456189321576, 0.5422576823280321, 0.3587045226320949, 0.5158951244697664, 0.6032145818572318, 0.7186881436665407, 1.2411652430375675, 1.0037781623131472, 0.9820453870366829, 0.09485190395599628, -0.24449123771088152, -0.27585052433870844, -0.2682147639430457, -0.10407309001053595, 0.10657094945342314, 0.24660168914891162, 0.2705743486709138, 0.28258734016094206, 0.3014188391940673, -0.012700772933595353, -0.5864457650037839, -0.7903536895718085, -0.546086256077209, -0.6841739776972553, -0.12020284041480099, 0.7130880336698834, 0.8173787645994092, 0.011977052574608531, 0.23312870178415637, 0.34080119962854266, 0.027754197625205205, 0.4063863892415166, 0.24465783142682593, 0.5334438865501575, 0.30468882172147793, 0.33587341483988614, 0.2942493989773651, -0.07252589965062518, -0.2712360301952671, -0.27620827767920925, -0.2744815326434305, -0.13197759692014074, -6.534913123364416E-4, 0.2955553976905972, 0.07333820483060906, -0.6646096625866111, -0.7619122500840781, -0.479120711751364, -0.49455172784504736, -0.8772630530327618, -1.185301248529096, -1.553254761322949, -0.6739883687195369, 0.8504514205042347, -0.008488188970373178, -0.5429339943071617, -0.05722650861253822, -0.14158157451156575, 0.1546946654709214, 0.24601262902762985, -0.08723250007195425, -0.2654818764016024, -1.0335213934778076, -0.6249616202968942, -0.1285774705093211, -0.17238692535110986, -0.2794304893078417, -0.3142300341636293, -0.2861760682991064, -0.21830367405749673, -0.11151204754413827, -0.05090652306524909, -0.6462179216427396, -1.039480044131618, -0.5534237335975982, -0.8042108293408271, -0.7497920702056823, -1.0897978893435463, -1.1455002190322263, -0.9899151103071887, 0.22516738240871356, 0.756877220567361, -0.3689784531236799, -0.059932997433179445, -0.6773351166998743, 0.16062586443829424, 0.04384324654217373, -0.31299195417388836, -0.3016901182492991, -0.6654267300957816, -1.766844219478418, -0.9609532793405203, -0.21666757156587524, -0.217471395918044, -0.23087394067319314, -0.27772712066850297, -0.2783913614515275, -0.23837423388955115, -0.20116328351416085, -0.195761370582725, -0.5256493078401873, -0.7799858790031864, -0.6187685664488906, -0.48444600537050664, -0.6287083649589185, -0.41831620871064223, -0.8303566656301767, -0.8591979878449251, 0.2587362955680389, -0.15582777703475198, -0.27520576380962336, -0.3944669369037857, -0.8171419177628018, -0.02280509222162509, -0.38654603427234396, -0.48971779882781735, 0.11912405819946091, -0.6538504924660659, -1.3066557689409464, -0.9246510303434553, -0.0068661520702206205, 0.13234913796924425, -0.30769608823239125, -0.3337849044579812, -0.28783862196112125, -0.2813270664378446, -0.20685626117906877, 0.192889890689592, -0.1800188124843189, -0.6032607753544652, -0.6863630143455809, -0.2165244429627232, -0.7460746621203852, -0.041204938893604805, -0.7545726202248251, -0.7385398845601505, 0.15982261770438863, -0.4979125698962275, -0.247739287744835, -0.7029232158284581, -0.12149603598129524, 0.025776701374439572, -0.3150608434202011, -0.055621033530865456, -0.31123281736563746, -0.39700676740737784, -0.7531225279350348, -0.17167251685883375, 0.5245260595038302, 0.3648551908399818, -0.2444040927599572, -0.2746813978557248, -0.3093194669576996, -0.26540176146357225, 0.12663345968001166, 0.4335081030708638, 0.17368576457166357, -0.3468851816697406, -0.6749830678373637, -0.07341411506295435, -0.48487528569359406, -0.23502463903512213, -0.755838565827129, -0.3549431887373853, -0.09327474088326489, -0.6811933243892125, -0.4256294951334533, -0.19283762418785563, 0.1283120083653744, -0.2323389506556759, 0.03972487843260789, -0.39739219851738766, -0.1775552169738023, 0.10680702988178493, 0.02694936832645966, 0.5924740601611777, 1.0536653936748392, 0.504896786964817, -0.16923777504640106, -0.311680779886145, -0.27395464945671005, -0.26140033192049067, 0.6148290664528315, 0.6129808405985666, 0.458309165854482, -0.11491970440806688, -0.35963805680364186, -0.4404800119869096, -0.2970008637967833, -0.21129318914054165, -0.7034194969453978, 0.06890356839651315, -0.5011714927538675, -0.932399537824604, -0.22999576019143, -0.3445383884739974, 0.009357313909069683, -0.3504312456483578, 0.31575468882322477, -0.26848471825004894, -0.03400825291932887, 0.5947520768360034, 0.3969160458358607, 1.220399244400789, 0.7542485004366932, 0.12338562332044802, -0.24741718912237073, -0.2529055027290817, -0.27964317835541014, -0.257935240184786, 0.6310641529398077, 1.007438340785678, 0.8753873739650804, 0.4676560024805678, -0.23624880252075403, -0.24874421894242524, -0.1999230008322, -0.29702537900891635, -0.22041096802362245, -0.879782965621487, -0.2065927449668639, -0.02670626217203391, -0.08802573248691278, -0.2505053632541406, 0.1547371753089747, 0.20094978285623322, 0.07829929672606935, 0.23136339978966322, 0.24948918618783442, 0.6526750395360512, 0.0673831680781207, 0.5683365713795038, 0.2514179207961497, -0.26642770203125243, -0.29079751279207594, -0.31183059043108646, -0.28552742014023086, -0.21640670230117762, 0.4858912826521481, 0.843808438144559, 1.1041329370084974, 0.8073125334020973, 0.8024353693824561, 0.9010833777284091, 0.6105739928745797, -0.36907759153367264, -0.4748022800269013, -0.5028646806997868, 0.1652307384372446, -0.27097456753349297, -0.7717003737802383, -0.26645578168943956, -0.20306379173010355, -0.05575524708663555, -0.13971216532767447, -0.03027767403745377, -0.03501368539105347, 0.531946025342323, 0.37469845082455017, 0.38190008544609194, 0.26620172602123615, -0.17685161189146598, -0.2732511994817571, -0.3107765470604655, -0.286464645659769, -0.2532744305700372, 0.07560665843485144, 0.942700756512791, 1.0525100407476728, 1.0846220420907318, 1.3250858417212208, 1.535125908712682, 0.8417519756265206, -0.13188095183153406, 0.1649006110762927, -0.5436302718013376, -0.6735649672840043, -0.6275306889015073, -0.9831661879076716, -0.739342646634354, -0.3039588211625747, -0.23248889478506043, 0.44737233918897285, 0.08727930877326955, 0.3027178869625221, 0.7229978679159587, 0.1927857213666213, 0.0713681666101, -0.08497729127035515, -0.2521821331463862, -0.27084580092495075, -0.2713006612834346, -0.2759938293806124, -0.30172210289889295, -0.23605128418373422, 0.4941064366728307, 0.6273305499373341, 1.1836336292031422, 0.7849542640730715, 0.48962544712346767, 0.5047905720946062, -0.05698977251412038, -0.49601600694853465, -1.2915824492198023, -1.1041188216287112, -0.505206985608135, -0.44656112487404565, -0.2552231673872151, -0.5384261527075648, -0.0794201485614237, 0.110928573233567, 0.22125974311783128, 0.8032758930596733, 0.8944088008387492, 0.3504544418024681, -0.009237564679867371, -0.28112752818862996, -0.3056361204820652, -0.3031031642091882, -0.3268972953869294, -0.2946826153994833, -0.32982677174859093, -0.2540330808249721, 0.0636837797046939, 0.43449710277428594, 0.9048948920999015, 0.6322406813340101, 0.7859143840825704, 0.7250639070698751, 0.046026303207711054, 0.534969244520901, 0.2728118191671231, -0.1564624480178724, 0.24796392215241297, -0.06660320512032951, -0.023522106381096315, 0.2084510331691329, 0.09422820009591133, 0.020976336943413294, 0.13080213923564424, 0.31340483453661433, 0.4773260365495867, 0.1190740269687184, -0.1612642579360438, -0.2996613315273001, -0.2766766171179063, -0.30516410243895703, -0.2909920975228773, -0.32958093560896945, -0.3042805465605007, -0.2705199118265283, -0.24436888786955338, -0.1772147205590383, -0.008632003170075274, 0.23826771380772524, 0.5947300154689946, 0.696834204703652, 0.7816711448146174, 1.2779248820093378, 1.494977459136192, 1.372168398528204, 1.100345075942785, 1.0469130444531565, 0.5037607644987184, -0.0921103926963792, -0.15197508150084155, -0.21675299275538806, -0.5774676189851012, -0.1909842304621684, -0.0327016872545008, -0.23280594076602643, -0.2176735236295213, -0.3109305543495603, -0.28388237977337655, -0.2665900301945678, -0.2741385776382214, -0.30827246275862413, -0.2920087548408215, -0.3110590827307219, -0.2896756185915448, -0.25900630249320616, -0.23445854660116813, -0.20786629296704642, -0.056702221006322454, -0.12891039074156593, 0.001018954230687973, -0.05985177637515727, -0.1253631469449965, 0.09376438198187102, -0.19518525309382143, -0.23358840382437576, -0.25094331845823103, 0.06089444558833794, 0.1267470041266927, -0.18023097742063826, -0.1381573344303834, -0.07380332025615202, -0.15536131451494942, -0.3433454213880668, -0.2250284430433421, -0.2781744421553189, -0.28821577876862325, -0.2825324707042018, -0.3273692785699827, -0.33178085782547223, -0.2725584818143733, -0.283299697997116, -0.280824268829063, -0.21433892022241316, -0.1335640610889054, -0.022011767357108754, 0.4577531650766296, 0.6062427522434582, 0.4910595643954906, 0.4558989613119447, 0.7033026604342429, 0.752918388457573, 0.8588921816695672, 0.856029896322344, 1.311890910979242, 1.323401206698335, 1.0645958227047647, 0.798071216616296, 0.7435364994720701, 0.3919737864704752, -0.18586665490586113, -0.43694280150213194, -0.2621026339337237, -0.3102594694142459, -0.2816783513745447, -0.3265045274073934, -0.3190971165958028, -0.27695147309522755, -0.3174903550293153, -0.2946685079479468, -0.32552412910973055, -0.2828010581776659, -0.23158775652172095, -0.06889531771109161, 0.20970089703957437, 0.35867689275743614, 0.34468114758508756, 0.41876745038534974, 0.7408589284629433, 0.799467574092599, 0.7894329064281105, 0.7320250497293885, 0.9541084225476827, 0.8289118752896019, 0.7012529198738394, 0.3180244252640271, 0.1922482206279952, 0.09498777867943373, -0.18296219866203142, -0.3093745825814571, -0.276820103033048, -0.2855844593637788, -0.33362388881822397, -0.32825670946897095, -0.2985070866758677, -0.32637867268069115, -0.3090439420654127, -0.3148948738520137, -0.3191388860439733, -0.2727015087410503, -0.30864898994472517, -0.16660080005685615, -0.21614705148050203, -0.245523208041338, -0.13611194164574553, -0.22892830527284505, -0.2629028405251065, -0.2167165531387157, -0.12254655677501713, -0.23981556347431707, -0.284292200717231, -0.2138859658995269, -0.13146414944608326, -0.14475288221695284, -0.2809964265899219, -0.3034435106154469, -0.2994603668383089, -0.3248298162309387, -0.30319389275225545, -0.26810689041383445, -0.2753158333065237, -0.32564649412691643, -0.2990042379503975, 0.07666950928546992, 0.06902637377323809, 0.1179672055942925, 0.08558280470046825, 0.1245975624523007, 0.1127138587894983, 0.11216085875426687, 0.0694410413851623, 0.06803827483868036, 0.10708678678209935, 0.10645340407328815, 0.09511469905673317, 0.08700380079484551, 0.12479507552638892, 0.09680689942550669, 0.12696269460177284, 0.11117960030153459, 0.06611792645277073, 0.08785030504325705, 0.11554455671616254, 0.1183259221841472, 0.06925680130300327, 0.08575470055970733, 0.1273913703410914, 0.07514686406908039, 0.08223663482216986, 0.11366767099687466, 0.07989554568947912, 0.07763013827767501, 0.11479719940100772, 0.09268597242119195, 0.10780122552087804, 0.1273690604234187, 0.09211390416822926, 0.11744081348853652, 0.10406952366533737, 0.1332455498242466, 0.08576015753085539, 0.10339916071271463, 0.09162472448983318, 0.1460741694658577, 0.1357429791543592, 0.046566225200922906, 0.13746792629211085, 0.10246792759760107, 0.10482551157176243, 0.1397895797598463, 0.13306084142040295, 0.12223661198951923, 0.1262818106771958, 0.11173398187587003, 0.12107398440807675, 0.10456986723140263, 0.13100023771230565, 0.13227884506910784, 0.12283034956133083, 0.07163078285162863, 0.09797067947578633, 0.0946293516953566, 0.08619819624487302, 0.12969076175041924, 0.10589774716581266, 0.08981600140059451, 0.2497951559014196, 0.32511068813347616, 0.607370531305865, 0.7824613527712679, 0.8144532447590146, 1.0121785105273338, 0.752654189502137, 0.5690142083877758, 0.6733497034864809, 0.5627173455649765, 0.41884761987249924, 0.33947193810091464, 0.18316506274060287, 0.17972464560897908, 0.18905146173111598, 0.0773590377991149, 0.10034039780746512, 0.07489403141701179, 0.0974884983218256, 0.06360117046269775, 0.08786867772377918, 0.1222745706820789, 0.12159250480719332, 0.0726309407667877, 0.14718771256061824, 0.11422870485393419, 0.06197573218847599, 0.22330779214407878, 0.5638073826478125, 0.7398159348473359, 1.074228640190112, 1.1773122957667448, 0.38277077264551584, 0.43895756671391273, 0.65530407091115, 0.5362907451230193, 0.3839139307379918, -0.16126846081390164, 0.5192876608053023, 1.3299704485328887, 1.3286435182114882, 1.1998571361796422, 0.4248585178714845, 0.4554749438744098, 0.5454244100502177, 0.6839164227410229, 0.11309287415135115, 0.0636607290904424, 0.08196248926111954, 0.06384747360554127, 0.07093264746876021, 0.08271467997989337, 0.09436010193408595, -0.06784141598771942, -0.0646519922879857, 0.037047726231232585, 8.281225358689305E-5, -0.14030557090197793, 0.05360787100812512, 0.04059555310364273, -0.28867142344195024, -0.43068288178371106, -0.07460054625881551, -0.12435458487065576, -0.4122965140444649, -0.20416627824580913, -0.05260242325120428, 0.026390280857091115, -0.629852456940306, -0.23335323539127356, 0.1530810608898392, 0.31790879198508204, 0.09716623588201113, -0.13891745195083552, -0.0426603889956098, 0.03381632329598678, 0.11419452141511055, 0.062245751735166444, 0.12284017096189843, 0.12924240571255666, 0.09796247738604408, -0.010750857104479846, -0.11587436528164581, -0.23744463474557168, -0.5976906954385521, -0.16243610595238164, -0.24348879910514454, -0.21155510988879828, 0.0840930568440564, 0.3052173050510894, 0.04601786300925247, 0.3089314788426038, 0.30965332631571946, 0.42575006971471463, 0.005120932713863734, -0.13136588507018898, -0.11900995561368793, 0.057117153003870436, 0.03425895603397074, -0.3737429562534189, -0.7877023267690026, -0.7776342169947935, -0.25026733527476086, 0.043754092053423684, 0.08014377583844104, 0.10506577716160356, 0.07686641067283498, 0.04648364301094437, 0.07666426022228129, -0.2858657523191684, -0.30232158864734676, -0.17376650239800714, 0.03625911705092454, 0.06599353415059171, -0.5033251858486423, -0.6394847690299826, -0.6577023165414455, 0.17092989416724522, -0.43841439849714614, -0.2483773207835515, -0.39295411507425987, -0.48237846588871713, -0.7329520080483866, 0.028194558075832613, -0.3784044668617709, -0.3807628622832652, -0.26601991583152723, -1.044121095167976, -1.6966025210732556, -1.0108855602538196, -0.2643630655688162, 0.031708660142715596, 0.06693207043480162, 0.10000289813223681, 0.08482521024748624, 0.11240825885674144, -0.041547622257073945, -0.44589344260208436, -0.28419016851758744, 0.15642663678710267, -0.029285926552030425, -0.2302171558627924, -0.3176774221656672, -0.5994325000409881, -0.5878055644758836, -0.9039659860501008, -0.363927738374707, -0.15296612832459583, -0.44350530770030394, -0.3145248348441782, -0.23146355123060885, -0.1633559171434876, -0.3996769222788126, -0.626587816610026, -0.41300148469811854, -0.634309347279774, -1.3100780666093568, -1.0502183741489943, -0.33383532460931814, 0.0040253182002209335, 0.12057023727989641, 0.12144866409071241, 0.1426802410792293, 0.14236071134419226, -0.010951130927842936, -0.338992009730372, -0.15191826910670847, -0.22848966457144734, -0.29283588172764086, 0.04077663066506807, -0.17520366715809782, -0.3231142822160928, -0.3673556928913167, -0.5345851562778489, 0.12596453907940802, -0.22624171750641178, -0.09376591060405097, -0.3857091508444514, -0.2155408895018406, -1.096534608874462, -0.49744777213557057, -0.9039786693411123, -0.9025412663998131, -0.9627552310357748, -1.420327841857402, -1.356195149848493, -0.4711117722614087, -0.05006029499137747, 0.06819825759426268, 0.07111005292738487, 0.06661308525392678, 0.14494010501568294, -0.1211658967606226, -0.09468411713371541, -0.5653968120591271, -0.2599078933420699, -0.11876241071607171, -0.08715404224101396, -0.23415761870868965, -0.2480780762172774, -0.6513163928797349, 0.14587942184030037, 0.14677604751842924, 0.533584113321451, -0.34477183916820653, -1.2624135782352262, -0.9576969999597544, -1.2545656142264006, -0.7451052533286235, -1.2261865857299696, -1.1743689866029081, -0.9941514428969451, -1.4339461818039703, -1.3881750733865317, -0.6050426004153042, -0.20564296816010053, 0.09216202771371942, 0.13229442716111992, 0.10222802303014145, 0.11408489279994118, -0.11037924411651319, -0.07211260799149567, -0.3048149823005019, -0.22108568884626945, -0.4555801346429103, 0.007113918959484693, -0.6478286462087306, -0.3051509074340048, -0.34867413163790595, -0.599744527881723, -0.43305470301442084, 0.3704804255699447, -0.11271213465821159, -0.46878860159333063, -0.1787732933813122, -0.38358058945460066, -1.188205847013796, -0.4102475112238865, -0.90896419475403, -0.9207368415438933, -0.4327029038836339, -1.1513978192012297, -0.5353668299898915, -0.27096170835647565, 0.041978047420657146, 0.1284156191276158, 0.0909061202492405, -0.015501429710960454, -0.10212049464733167, -0.19996636747998062, -0.5224578253009993, -0.7595326408665585, -0.8465493646617858, -0.47044558416780163, -0.7358287918942918, -0.46024911245845423, -1.0923584334718948, -1.8111374479297289, -1.3854387128316186, 0.20151790237653444, -0.5353652378548951, -0.3556482468752254, -0.42567064741204985, -0.748340448465531, -0.20416201871068693, -0.5101857498448015, -0.45971167301906674, -0.5374235298409444, 0.20917753342594134, 0.2566778592883459, -0.11181232550819586, -0.08337648687540977, 0.06867596061943007, 0.12941822324247956, 0.10347551289514009, 0.03833422328545845, -0.08386717434515478, -0.30481557614184057, -0.9888596985820393, -1.3536131286208586, -1.8997522452610998, -1.1797211945701314, -1.5839203807226736, -1.531992358775676, -1.7434751268127135, -1.8498720137342408, -1.3779228015120706, 0.26905239940462333, -0.0362416910156041, -0.9858427290678491, -0.4534204652630816, -0.17269483540521982, 0.18374156305603162, -0.2524515026883209, 0.25924185612501116, 0.03784805010919698, 0.09686675636902782, 0.9844510168006725, 0.11706311236810865, 0.021257692073509214, 0.13442025463258017, 0.10919784537857491, 0.12364330388910068, 0.11098566195163745, -0.10176322617749395, -0.48534177816362445, -1.4786376239031087, -1.1840560355062661, -1.3809672512857702, -0.9904201484589421, -0.5181650280443193, -0.3028885603497913, -0.7302498588788718, -0.6473917067807249, -0.29374578206811697, 1.3657227185012626, -0.16028349095988675, -0.1637231405303421, -0.3949243073608893, 0.25648720964131794, 0.09672578965914366, 0.06497304840811216, 0.22095439949369872, -0.13869638116559066, 0.3192982567850412, 0.5641570523337195, -0.006521352050230507, 0.107428472722321, 0.15923110860066209, 0.09674850388649048, 0.06692180218750232, 0.10907598396169091, -0.038943559817655814, -0.45386468686129733, -1.4410731915046806, -0.6361009218668864, -0.42934860356718324, 0.37242714957573014, -0.1471538779819235, 0.30797435795091194, 0.8582869408344067, -0.23989926682970922, 0.41780035292133216, 0.7171559958528566, -0.37938506507509284, -0.29491608780798173, -0.6791390624217196, 0.2671860575476169, -0.2870690401877435, -0.22684832758900414, -0.24562105528550607, -0.1677442378615963, 0.23725985725708046, -0.07659919804680272, 0.07538381447603261, 0.2443078254729107, 0.1309484425145878, 0.10247857368508284, 0.10643964495905231, -0.001603712803505719, -0.13674051465405826, -0.3228075936350671, -0.4632345569860301, 0.29190869844650036, 0.46768272150198276, -0.07613243204118803, -0.26502196928125793, -0.25404510441852063, 0.4632777820041909, -0.3615857028730335, 0.9495472742651532, 0.9135785742707649, 0.5077123406177304, -0.3803821467830351, -0.49668937768502897, 3.237434292552824E-4, -0.4212917109808846, -0.18097429277412483, 0.5441507659567433, 0.2999188372823712, 0.16196242200066102, 0.08916063093845678, 0.5494963688243327, 0.26436386331352263, 0.09927730288791445, 0.08494840429361655, 0.08552189739860319, -0.013871235438508892, -0.25503005782446525, 0.10280806509937145, 0.17084195782965736, 0.7647988340329895, 0.4782840574873901, -0.3474368207536025, 0.7875325598537032, 0.4551373566595344, 0.9746782294210253, -0.07348274598324882, 1.0317467600158083, 1.57161492133082, 0.06036336099367743, -0.48198670153127426, -0.4268857952728421, -0.057081210079227555, 0.09415155755615767, -0.30242395627917334, -0.0808682955778356, 0.44841968987231745, -0.014743053848871777, 0.18846409640468723, 0.8168669394495777, 0.36461153416321906, 0.11546229363229524, 0.11147889734784813, 0.1153172424860548, -0.05780068028388717, -0.29365758458873237, 0.3608310115657183, 0.38792406417105374, 0.3260988571501099, 0.35984716047077575, 0.31185709470792583, 0.769404116763761, 0.887803900521146, 0.3352607278135724, -0.18217501396257263, 0.7653741658617172, 0.6727993948580269, -0.05670207798164141, -0.4690862764406742, -0.35606174905314, 0.19098619866802488, -0.21719868460426062, 0.5290265333629841, 0.088136580391309, 0.22054709345717105, -0.2595634523076228, -0.0460985907788497, 0.649738944854, 0.18121664306032403, 0.09958683706756682, 0.08292244272545063, 0.11697995219537743, -0.20030307602567693, -0.2822153264172417, 0.24533332547473105, 0.2769426136098691, 0.053107195426006726, 0.0954055664876984, 0.43949312625426173, 0.44407476966506254, 0.7781014248051016, 0.6715813217529227, 1.4832831710256098, 1.1772557655326608, 0.6404431798261935, 0.6186633537263665, 0.5544427720137117, 0.21649582015007077, 0.7445624668599218, 0.1910782450026301, 0.12598854705483087, 0.36010536525149084, 0.25858474307629625, 0.7911431602506567, 0.6262391077485898, 0.8549275265771781, 0.13041021839059294, 0.09983562654819703, 0.07909380169282496, 0.07565012360383472, -0.13932130767602158, -0.2404437531422708, 0.28483798048803805, 0.5649659081869836, 0.2632242858450931, -0.0017278737158385367, 0.5414288987145921, 0.7948460105264604, 1.1325017598705194, 1.8460257466857943, 1.1513340204754334, 1.2551587506261495, 0.679359651124727, 0.5201362409933216, 0.0065731751224163285, 0.5553913239904114, 0.5454993934523072, 0.4959412429803134, 0.2049869124177326, -0.19166198184316727, 0.6032911142060058, 0.7422377735704225, 1.1474734541604916, 0.6630164596029254, 0.1166106942152565, 0.11435234195669783, 0.11248277906447601, 0.11868340012488768, -0.05069143008047828, -0.10320112002243817, 0.4436267832515908, 0.17206110836100225, 0.26160848754604377, 0.17771734139227455, 0.3214505401488353, 0.6600151738800124, 0.5575487797433394, 1.096295795731763, 0.542035490481198, 0.3487697642522343, 0.3344993475470784, 0.36506796742853975, 0.5322785988628539, 0.030323915558515536, 0.5979603011678222, 0.19582024913916316, 0.21595477073183356, 0.5141628558938204, 0.3443448180477609, 0.9702732621014252, 1.1401059020043416, 0.4779736130240708, 0.19492410744351796, 0.09637799494894317, 0.06311928073530057, 0.10140523582206598, 0.05184427089055516, -0.023559447811184703, 0.08307131780255997, 0.2258846768059826, -0.2543080699620702, 0.20197492653783417, 0.030296291642930892, 0.737188938716214, 0.23051667435709966, 0.21297747230704195, 0.8419774411080004, 0.97786350937976, 1.26159794867984, 0.8232447935995922, 0.38024566665809845, 0.6620804090838032, -0.037277655849451606, 0.3334550857898305, 0.6455773169080361, 0.807452866259277, 0.6733649004823512, 0.9044617520850923, 0.7088085891906916, 0.3036250497748429, 0.18870542821294115, 0.10446037845352468, 0.09619358501872005, 0.06531482651737106, 0.11416628837887743, 0.22503500757789816, 0.5181458665374848, 0.4699999262991918, 0.22362891416629302, 0.1581798506172248, 0.8316083504943064, 0.382776416032685, -0.23665690918201845, -0.7284658193686783, -0.5414546675504629, -0.3370605001082719, -0.20289466092984576, -0.15027495235931276, 0.06516768614281447, 0.11924757803290655, -0.00800837532091896, 0.4404729463502315, 0.7983728048947977, 0.5625112341717589, 0.7771225174031424, 0.5606605335606175, 0.2285670633801653, 0.13675809091187419, 0.11219984329362628, 0.09407088112064982, 0.08006031723645468, 0.1265315660445702, 0.06558800418632421, 0.07592072836471603, 0.1570437163976514, 0.5085914935139125, 0.48934311857029833, 0.20765687947617487, 0.11692781040204367, 0.7440889426356618, 0.24403761031935797, -0.2261693746137631, -0.5552308947890435, -0.8142770274459015, -0.7236687554116631, -0.226727906345204, 0.026277843284043416, -0.24467428265550104, -0.5802918634249203, -0.003146871713405287, -0.36932825617848114, 0.13252743968943162, 0.2981039291475218, -0.04220583704416691, -0.04955391913056128, 0.035364134024551165, 0.1154959244732579, 0.12553061114158492, 0.06116910790483099, 0.08794197938840187, 0.09466759358256938, 0.008810721308915442, -0.0581769261966139, -0.016799980684654107, -0.037233780626914285, -0.12370850554509281, -0.0746548211844976, -0.32735730947428165, -0.5183877829891508, -0.5808676820716446, -0.08037907392396529, -0.36684524425929044, 0.062032699061842486, -0.10616003994377743, 0.17472912779187277, -0.28238773366855335, -0.2136327897006487, -0.36960221766344525, -0.5350973877323961, -0.30450897001466964, -0.16987147873066535, -0.17199641109479666, 0.054705447190325704, 0.09957197474961232, 0.11299591136818019, 0.071415109892035, 0.0828914908484098, 0.11140182433938015, 0.0667749418884101, 0.04478984039739726, 0.07546462130776363, -0.06099231496371824, -0.25849724898878346, -0.6288360986191325, -0.9552978664335131, -1.0213594500808245, -0.9671455621559802, -0.8861533208206507, -0.7052004250976833, -0.866235353768016, -0.992111847107297, -1.25755237298223, -0.5327810690280022, -0.2603699558468647, -0.17335658607125187, -0.21363859257614534, 0.04668150212333746, 0.14723882167153352, 0.12256144333220474, -0.030639644161369693, 0.08017751855644681, 0.07590500086821395, 0.11215723006400846, 0.12006506065842087, 0.11813353765079052, 0.1281948800264918, 0.062062017654987506, 0.08129739699935887, 0.11381615895510339, 0.09390493905745459, 0.0573663805717368, -0.062294006309155055, -0.05028430619472267, -0.11910251398872096, -0.03710195013249621, -0.043813560425208994, -0.11727192638723356, -0.3280463859412545, -0.18426828385305377, -0.1481776066436409, 0.012156347550811235, 0.06111009646347211, 0.07855131657187779, 0.06127718241717829, 0.13648320663347294, 0.10854199851059043, 0.14285149622736718, 0.10355968601087598, 0.07871439416651835, 0.12072635385776148, 0.1277211359630455, 0.09273902067450362, 0.12617586947284803, 0.10387691145401717, 0.09463970138378502, 0.0846803705446072, 0.06849709462500628, 0.09679627342718003, 0.11536969886879583, 0.0902560261898499, 0.07592822076990874, 0.07741135716280972, 0.06029543128751175, 0.07257393268641879, 0.09111824354531924, 0.08906980555919879, 0.05912244246873212, 0.12115916176970586, 0.07023561760890942, 0.09759159012494709, 0.098902564422193, 0.11514308679646243, 0.09990755056435355, 0.06828224992586637, 0.07897450278330859, 0.11724302734064165, 0.10937255324281542, 0.0764527585945626, 0.1130357104181976, 0.07621992227560062, 0.09955688162803569, -0.3891775692945263, -0.3918511291967218, -0.41661935609028333, -0.37961954857555325, -0.41431908639482595, -0.4145831630539366, -0.4223305943898109, -0.4220458282217243, -0.4242605734134376, -0.3738304030561381, -0.40031224018566536, -0.3871701199928672, -0.3813095593522715, -0.3670329108284218, -0.42007703897655646, -0.3821652322159116, -0.3632831072397199, -0.4172353696309242, -0.38359936543047946, -0.423965363662681, -0.3848079841613835, -0.37801221090359927, -0.37689902355891036, -0.3801288515444089, -0.4288025411236204, -0.37984236829260665, -0.4241062641913025, -0.41311700459629264, -0.4092540024804545, -0.4176000959296883, -0.3958190359952386, -0.3748903542379416, -0.3957321808071522, -0.37699309300690254, -0.41010414789708394, -0.4029767304883542, -0.32812235521840905, -0.34220476653753173, -0.304330476551624, -0.3375230466846779, -0.388484103837064, -0.40686270863761, -0.45740997516329734, -0.5401300404810346, -0.4132088568959012, -0.33968696504223617, -0.3757710048916436, -0.36871406239508364, -0.41936072966713966, -0.3741058905774407, -0.41442091029698647, -0.41947554987697633, -0.4048414295763202, -0.37071375619093205, -0.4192269832396224, -0.37419710702781184, -0.3659519811883507, -0.39805543412728817, -0.4045736198613544, -0.4189534224587087, -0.4120548050756733, -0.38148815107556233, -0.4203613016392185, -0.3232832001644051, -0.12986474519816985, -0.018178370366564573, 0.19348783325807115, 0.29702840896607274, 0.263703050280693, 0.1043618573707916, -0.14374850129666802, -0.11204043074117441, 0.009935887551527916, 0.20096779666281925, 0.34849990764173555, 0.3825246298974592, 0.17477031680520252, 0.006237364208267423, -0.12337011634001525, -0.22270569738835602, -0.30511991292547197, -0.373292313751475, -0.4243068304758608, -0.3811931550982596, -0.4275749153021291, -0.42323539660984366, -0.4342060993554291, -0.3779094333975993, -0.40647025146299615, -0.38181198898599206, -0.25307369751047143, -0.18217372159711007, 0.17184843051883533, 0.7536801574288937, 0.8408696002790007, 0.9703571386692706, 0.8356935000875146, 0.5267961368558327, 0.3194634274353015, 0.7240513584602067, 1.0047299918348658, 0.697524801737556, 0.717856912238553, 0.930295279181835, 1.4077688331169098, 1.2999314580090768, 0.5509707639057535, 0.11538853866501947, -0.10442585701602682, -0.33539664795298896, -0.405689138476621, -0.39043186112204853, -0.41549630325400333, -0.4145665963487043, -0.43641889927319466, -0.41818616876671577, -0.3823338404502798, -0.20008608686643786, -0.0830996801840571, 0.25239886367945324, 0.4619781004318141, 1.026552550354132, 1.0160664131102146, 0.3319016818323019, -0.039369816236006355, -0.26763837788302525, 0.27094266116863647, 0.01973595856945281, 0.19052289524485091, 0.1346884577376479, -0.006063701449910477, 0.153154869455555, -0.2671636280796785, -0.20481546898616124, -0.1958334637218862, 0.3984855896499598, 0.2843871088453985, -0.1531847739551513, -0.3793422034291616, -0.4131025841585376, -0.4119451719111926, -0.40112154728165605, -0.4426746615950689, -0.3961151017095962, -0.28044044803757645, 0.06545752148801394, 0.3358378021457147, 0.4620696865817859, 0.6181443870454794, 0.8688453336980934, 0.881607119825997, 0.028402797392889742, -0.16219797199688213, 0.09361752518522634, -0.06255720469100955, -0.22694464548452448, -0.1611304161102908, 0.1562642577306193, -0.14586369043719488, -0.20290968174140459, -0.39076347903994785, -1.0288096168750975, -0.35850198210369855, 0.9110964296311544, 1.1223171460757513, 0.4068491208545841, -0.15233368452114968, -0.36847787674107746, -0.3925479971337975, -0.400816014409898, -0.40820610024661624, -0.3626306923124788, -0.17437973119261296, 0.21351308132505326, 0.59879663115708, 0.43950041445940813, 0.33617958938141784, 0.6680477705721776, 1.3073089584192834, 0.31496360620943326, 0.05371386804105256, -0.3020849263615547, -0.025831980865503895, 0.07776727479649978, 0.19753069740960627, -0.14565266515232736, -0.3111010985388465, -0.20095305062815264, -0.06680207459670157, -0.12708523167316546, 0.3472132598890598, 1.3958784983212433, 1.923546973425147, 0.8068746609275048, -0.08775136724176127, -0.35066309776860616, -0.39317361954321195, -0.4109021069658749, -0.4039825885146876, -0.3190423961865613, -0.10897460065994945, 0.08939186048935809, 0.4500506642692763, 0.20646001777666528, 0.20180170120113403, 0.0019325550767392851, 0.8950962789836419, 0.5568382515756227, -0.3926793815152862, -0.012841661756112439, -0.5580078242268538, -0.10447954978208888, 0.23965652799496168, -0.47987335804220016, -0.31673970242840205, -0.8311869010848829, -0.12959572816945458, -0.42418966819275633, 0.22384161209002545, 0.9523365288697332, 1.6807236579976281, 0.8101673586123551, -0.08363514639315614, -0.35737341933765854, -0.3987411887696013, -0.38732228194190943, -0.38410690811948195, -0.33686221700995667, 0.008648943130363648, 0.2992299430801315, 0.5834062965225725, 0.13120048439175303, -0.06387871913079854, 0.08769271914782518, 0.6381613842099461, 0.44277818340034775, 0.2739070546870805, -0.10454336795186056, -0.33956525868961246, -0.8445147563985423, -0.20284778687670538, -0.7186841986363047, -0.44483997145657844, -0.11886341284525616, -0.5382961669627688, 0.0669933744056048, 0.4198252651554383, 0.3825237938911861, 1.4758160090104797, 1.3372270666681427, 0.05814522613059322, -0.294862785383608, -0.42105976103525666, -0.40746914774039, -0.3063837615699273, -0.20349369929397154, 0.20712922003157838, 0.0722015684010549, 0.1174167867979034, 0.11146464878283542, -0.10948867381839598, 0.005577334256905956, -0.34327330520335764, 1.0586867853370499, -0.24267897781830233, 0.02791894301462479, -0.9718535130523599, -0.5210881435992277, 0.062008119019159584, 0.11757215944395004, -0.5219672640521569, -0.4734388324853663, -0.0510726840326351, 0.883066731260599, 0.4497669183025234, 0.4070094770924322, 1.3050420362948658, 1.4951360497376711, 0.1508697033552149, -0.3760857086282136, -0.4049592901717023, -0.3696641070527068, -0.23335745340637093, -0.06945009772567762, 0.3264988813944969, 0.21683026351682955, 0.16401525366848055, 0.31540143200552234, 0.14850241414896728, -0.3336261422906565, 0.2964635872891619, 0.7026415634426023, 0.12838250281108604, -0.13789230043259557, -1.2646098206089427, -0.5557364340347456, -0.022758896073503024, 0.03171200929734333, -0.13781818500435364, -0.08499479739567173, 0.05690305814460355, 0.4862154220837452, -0.36177652297686236, -0.10372678459038354, 0.9606315135591167, 1.2757100113495965, 0.14276191271579522, -0.41499805907868426, -0.37317740042358405, -0.4474680626436026, -0.3085139868075387, -0.05406502926336278, 0.46461397818507905, 0.41664070019948035, 0.010889517379088014, 0.384626179163677, 0.23074621503937232, 0.2311616713074036, -0.21676082156014403, 1.1181597135930281, 0.9518223761503483, -0.10917906340093134, -0.7803686511530301, -0.9363366306914498, 1.1081624190889947, 0.9006402707965551, 0.2501504994386554, -0.36009292648057933, -0.055796570397121346, -0.3119078333399182, -0.7187292294848949, -0.7950999359099152, -0.20827830946437245, 0.5409796758082814, -0.09268334122533231, -0.41021490195285004, -0.3884181061712232, -0.38529673435631684, -0.2705265977694161, -0.10434248240275265, 0.6227586160095425, 0.12196466593453265, -0.30734907194365296, 0.10832078537925059, -0.03452338786238135, 0.326722499603717, -0.7259880891841322, 1.0436466888594798, 0.3424150878053624, -0.06410839712322784, -1.1985461394086692, -0.41123110203832325, 1.0571281804849175, 1.6433957657995757, 0.28840883889015695, -0.25729932685283907, -0.5604747109255224, -0.23281181085416672, -0.8456859112080897, -1.2375830984154386, -1.0703623309434, -0.012553781432205625, -0.23527738408552185, -0.39616087027892816, -0.4189234886800388, -0.3628604852114097, -0.36378383302333994, -0.014388811601505125, 0.6858053238598885, -0.1740225982477732, -0.8652404207035578, -0.17829038772691963, -0.13358405278920954, -0.08519926343324376, -0.6316896914269697, 1.6919890041509322, 0.9614234990884235, 0.3801615537291636, -1.163614378827383, 0.30434331608082105, 0.3845594298748534, 1.9342549952369004, 0.6398643237470865, -0.5651611278796138, -0.23337225128554098, 0.16790907504638508, -1.0406918403660554, -1.1410690227450904, -0.3062830434789907, 0.05243774742607194, -0.2684954105682765, -0.3628709509054886, -0.4101782079706414, -0.3767262543609349, -0.3911533632627239, -0.07674013035424776, 0.22603198037037564, -0.706738547624939, -0.6942453069165847, -0.3304827050623773, -0.3401423784444115, -0.2641367888945304, -0.9364583300349351, 1.8374439371756999, 1.1042887919610134, -0.7766413218280195, -0.07752433532628002, -0.2730957648893389, 0.3348157779408609, 2.2590138500074426, 0.3064236841217158, -0.46114448299899075, 0.0371648974082083, -0.039366352543074974, -0.5886603945487057, -0.716107218964638, -0.026568891628404097, 0.15476126338548427, -0.30251361825873885, -0.3645608787397843, -0.4269879906749272, -0.3785498097298544, -0.3662137071301599, -0.07011876625418134, -0.2188945636002094, -0.4602297847232034, -0.20175153441347038, -0.4568861521989224, -0.602357835208006, -0.9228390271325376, -0.1923340716522438, 1.5900941594235027, 0.44959164312367617, -0.556625045720613, 0.2819011182865429, -0.09025828736489476, 0.31852529577619165, 2.2750579409715286, -0.6147099229414484, -0.42400554329315143, 0.09888143837742441, 0.23175572451755044, -0.001400638784477572, -0.013137991280215625, 0.23739492758790703, 0.3869268955055851, -0.03418380168686138, -0.32805661311596734, -0.4249579505239738, -0.4073499088916426, -0.2678624822706509, 0.19700651285065113, -0.14444723703136403, -0.22970651118548616, -0.17005889394287887, -0.5445575180283293, -0.699441606794108, -0.5463113665845645, -0.006220673082789001, 1.3618685637326595, 1.7511582038318378, -0.06932822721853434, -0.18996910409436657, 0.02653954120671691, 1.539296327468131, 1.6254747955427806, -0.4215961779581607, 0.037866015767041364, 0.05890100622992647, -0.3448362990407434, 0.1280327723190729, 0.21212225797039322, 0.6035875171763284, 0.44968872888250977, -0.010353992714846987, -0.3275106123044613, -0.3699769536477161, -0.4271311009382406, -0.23989899360798386, 0.3323349461246849, 0.12433524412306603, -0.3111363549220663, -0.4836389320015911, -0.3199064677659285, -0.16578763522358944, -0.24242852772921036, -0.5531647763219318, 1.3154929579517098, 0.5564556061526978, -0.5526666685648178, -0.08617165832914785, 0.3723742428524739, 0.7317269392913663, 0.987787821571704, -0.028036707894675068, 0.06593214465032454, -0.15052682135588857, -0.16605923014505883, -0.44341396480048917, -0.07967913220584354, 0.5045673452655375, 0.3938558721339237, -0.23988894531390917, -0.38395506772446664, -0.4179303081045266, -0.4006484561564011, -0.27941853244796067, 0.5237156110885649, 0.5556894348043431, 0.07557436628408937, 0.2447027641519789, -0.07438827611014776, -0.16343869280024853, -0.856311331486287, -0.6306576244410504, 0.16980163470677107, 0.31278125633043496, -0.13319806235132148, -0.2088871112153782, 0.2186998822604308, 0.34933246664048867, 0.596289791620447, 0.29864676251786404, 0.3062854030196419, 0.19991280411585935, 0.016886696377946753, 0.12807982580310137, 0.24005407809907062, 0.011739177530424326, 0.06462149101247361, -0.33166728912607274, -0.42164228369343193, -0.4069849571754388, -0.36261555464939055, -0.26539279989866943, 0.5473240246987016, 0.6436595954633998, 0.592252114925881, 0.5125562671850906, 0.3266801585244919, -0.010114307938885318, -0.2310606263879893, 0.250286012226232, -0.7454051393099508, 0.007098853186791237, -0.5297236715704584, 0.2646204459329176, 1.0382704900064341, 0.3290741756030528, 0.5084462852992251, 0.4030602128120161, 0.2632938490034345, 0.38784836406382567, 0.2962763207472385, 0.14359651520763303, 0.31206293637631055, 0.28506703757825735, -0.08170625969982731, -0.2282311704664338, -0.36361532721991263, -0.4281794109438377, -0.37535187516564605, -0.26011868593523985, 0.35084813978425894, 0.7300056732157831, 0.37789148116647886, -0.02246171353656286, 0.26890266462622037, 0.12419732552963084, -0.7711097074949822, -0.4869322049519354, -0.6614929715123976, -0.6389337133418969, -0.3807377125203831, -0.0846468290929117, 0.27394664468049523, -0.06011913914480312, 0.5418444009047333, 0.7805088096116495, -0.04580899260922389, 0.13698483777341083, -0.026198786337660446, 0.2746149639762963, 0.4235997283862008, 0.11369247305844236, -0.16590819859745934, -0.3069232490585602, -0.4293035538647101, -0.3774387530377268, -0.35042092159240057, -0.2759310594471901, 0.32546000963566213, 0.9234880477592223, 0.5766496013884789, 0.22788126728581753, 0.4059572157546787, -0.10321546598752465, -0.7512056300764224, -0.6088222494134523, -0.4987471989297919, -0.27412707103795336, 0.10768653176600647, 0.04892888609087674, -0.5177190557996904, 0.18126095840580983, 0.9185978375051136, 1.5727245632759481, 0.7794430464662012, 0.029230755253534565, 0.19442570366219533, 0.464943523562811, 0.2891714660182391, -0.11298816625615078, -0.4027380035253548, -0.44787810289529806, -0.3778795999172063, -0.42406863305295894, -0.392700694221349, -0.3723721533719291, 0.19155057982393764, 1.3084990264513454, 0.40856894145764183, -0.44793028949560365, -0.14339876187148332, -0.4065426837861527, -0.5343964557313797, 0.05127930564114981, 0.31512773887802, 0.13453025347260436, -0.18152535611624102, -0.671269742287216, -0.2537336117980647, -0.4518235768789759, -0.44540924649426494, 1.3892927406881772, 0.6835861743990415, 0.6214874904604147, 0.8827206456692365, 0.772495553201691, 0.3168901820142306, -0.15991941785953792, -0.409665631136791, -0.41191750920320214, -0.4336489374263498, -0.4220218371268969, -0.37220339853649165, -0.36825085755786513, -0.18503892436575392, 0.5050698851535377, -0.32748211086412266, -0.6525729377278507, -0.6018199360357027, -0.03071859633619679, -0.4268162483178725, -0.8670636493726118, -0.5412695037036096, -0.37778269919027224, 0.2985093692640721, 0.024817791814015503, -1.160539808234735, -1.8326723663703617, -1.5734875051477033, 0.9284154833047138, 0.7757516640613685, 0.6606737805288563, 0.6351784836767043, 0.2510262070354194, 0.005968921150361255, -0.3003200622777176, -0.5460225154597041, -0.42889623924273546, -0.3629346170542088, -0.41522075386382784, -0.38437126736349747, -0.3456430868223694, -0.24291996882765135, 0.18006412276283015, 0.30454375294423164, 0.06831827719975304, 0.578040305880976, 0.5549628858406294, 0.23634759543255077, 0.6888696759670796, 0.8513855161358647, 0.09453324343455095, 0.42658262743358605, 0.620349535979326, 0.6172598536949699, 0.5705037906154296, 0.34026659074432325, 0.41616241176515245, 0.0767041351703931, 0.4452294987235037, 0.21236541985638027, -0.09212936621274376, -0.1074939722504808, -0.26257180071383046, -0.3889798355137982, -0.3805988339866403, -0.396852062154317, -0.42803936951424326, -0.39622386160328893, -0.42486720332778316, -0.38938132809759496, -0.12214147757938135, 0.3585649199127017, 0.9053317824702671, 1.4895013045609056, 1.58353434541257, 1.330971473991101, 1.6332092981851065, 1.4925632306862253, 1.7109967786267926, 1.7147410597088306, 1.8695738336929264, 2.1087568685238454, 1.6182627374471008, 0.9435583130469366, 0.4499450470764225, 0.23617821370929484, 0.17651358517450816, 0.13099716281039364, -0.0956877172774416, -0.2163821846249482, -0.3475925600085026, -0.364041592832407, -0.37657453612488334, -0.35984990345468715, -0.3836891053420646, -0.38545901816582706, -0.36220039804783166, -0.38878596228771467, -0.3645010009892501, -0.1531905604675132, -0.006377426210192504, 0.0012487017746085553, -0.05417561319686741, 0.061865245738245096, 0.04898601568431032, 0.2303070232796177, 0.4062256333431936, 0.4631380400279712, 0.6342840198966062, 0.9192854279132018, 0.5098656185219924, 0.18511155177295205, 0.11387070008647934, -0.1619927416904398, -0.11429924619279366, -0.12675512408960518, -0.21337473554824402, -0.3429245103033787, -0.4281448638253027, -0.40590221197554166, -0.3612376691049144, -0.39682702320558905, -0.40815889564985497, -0.39121726334633555, -0.42854652662894566, -0.42692239682762767, -0.3715323922647772, -0.36045937447984644, -0.3563929449379556, -0.34093954233925305, -0.3310214821760129, -0.3074636533612434, -0.29643354983748654, -0.3505652863233882, -0.3019133673035297, -0.17538401154972857, -0.05968084905348383, -0.07781555662810447, -0.29915278257966416, -0.18466413116743488, -0.16733257174622754, -0.38387817696862875, -0.3201195682968929, -0.3248629611061301, -0.3010008682777393, -0.3799966010493504, -0.3686515783895151, -0.3848604679788724, -0.3637358180908954, -0.386437121658081, -0.38307324486711636, 0.33601839137778283, -3.5470645163490353, -3.448434739849281, -1.133758523017642, 1.439264399022348, 3.294792528108588, -2.9716536953426336, 3.180825397658598, 3.023255517823954, 3.0769785234104083, 3.1681660353714847, 8.412106358553308, 0.9879567359677927, -0.522598890342745, 0.864037534391275, 2.8204575026772956, -3.3657411797595858, -3.339237704767991, 0.2924897877978003, -1.0300410845896741, 0.6060065006859212, -0.5816786098026294, 0.6021004478003581, 2.4714349064504684, -3.4749493271501657, 3.4071199095305986, 0.2966905279724121, 1.9797689030498493, 0.852703254314251, -0.7572412624904139, 0.8427879524996555, 2.821205516815578, 0.7976723604103093, -0.4957149802566014, 0.6124147596135675, 2.5752980471410236, 0.6566661203724858, -0.8231382284040565, 0.8685251216077011, 2.561385865120571]
